<?xml version="1.0"?>
<opencv_storage>
<stage10>
  <maxWeakCount>6</maxWeakCount>
  <stageThreshold>-1.6394444704055786e+00</stageThreshold>
  <weakClassifiers>
    <_>
      <internalNodes>
        0 -1 311264 -1.3633016496896744e-03</internalNodes>
      <leafValues>
        1.8518517911434174e-01 -8.4342962503433228e-01</leafValues></_>
    <_>
      <internalNodes>
        0 -1 47721 -2.5207595899701118e-02</internalNodes>
      <leafValues>
        4.6956652402877808e-01 -4.3697243928909302e-01</leafValues></_>
    <_>
      <internalNodes>
        0 -1 5438280 -6.3687490182928741e-05</internalNodes>
      <leafValues>
        2.4907636642456055e-01 -3.5474461317062378e-01</leafValues></_>
    <_>
      <internalNodes>
        0 -1 6309836 2.0556785166263580e-03</internalNodes>
      <leafValues>
        1.4722907543182373e-01 -6.4734339714050293e-01</leafValues></_>
    <_>
      <internalNodes>
        0 -1 6668950 -3.7650775630027056e-03</internalNodes>
      <leafValues>
        -8.6707651615142822e-01 1.3645219802856445e-01</leafValues></_>
    <_>
      <internalNodes>
        0 -1 2605857 -2.7213949942961335e-04</internalNodes>
      <leafValues>
        2.6050460338592529e-01 -3.9994555711746216e-01</leafValues></_></weakClassifiers></stage10>
</opencv_storage>
