<?xml version="1.0"?>
<opencv_storage>
<stage5>
  <maxWeakCount>7</maxWeakCount>
  <stageThreshold>-1.7005840539932251e+00</stageThreshold>
  <weakClassifiers>
    <_>
      <internalNodes>
        0 -1 7344723 -1.2139962054789066e-03</internalNodes>
      <leafValues>
        1. -8.3318054676055908e-01</leafValues></_>
    <_>
      <internalNodes>
        0 -1 945394 -2.8545060195028782e-04</internalNodes>
      <leafValues>
        4.9044698476791382e-01 -4.4390127062797546e-01</leafValues></_>
    <_>
      <internalNodes>
        0 -1 6103284 7.9883402577252127e-06</internalNodes>
      <leafValues>
        -3.7172758579254150e-01 2.8723862767219543e-01</leafValues></_>
    <_>
      <internalNodes>
        0 -1 7455196 1.0256325913360342e-04</internalNodes>
      <leafValues>
        1.9144101440906525e-01 -6.0311698913574219e-01</leafValues></_>
    <_>
      <internalNodes>
        0 -1 1469964 3.4239375963807106e-04</internalNodes>
      <leafValues>
        1.8394981324672699e-01 -7.3935806751251221e-01</leafValues></_>
    <_>
      <internalNodes>
        0 -1 6691983 1.4678675215691328e-03</internalNodes>
      <leafValues>
        7.4941731989383698e-02 -9.4552570581436157e-01</leafValues></_>
    <_>
      <internalNodes>
        0 -1 2981566 -4.3665972771123052e-04</internalNodes>
      <leafValues>
        2.7288877964019775e-01 -3.6651542782783508e-01</leafValues></_></weakClassifiers></stage5>
</opencv_storage>
